{"kind": "motion", "version": 1, "createdAt": "2026-07-17T04:21:27.634231+00:00", "sampleRateHz": 50, "windowSize": 100, "channels": ["ax", "ay", "az", "gx", "gy", "gz"], "classes": ["normal", "walking", "fall", "struggle"], "emergencyClasses": ["fall", "struggle"], "featureNames": ["acc_mag_mean", "acc_mag_std", "acc_mag_min", "acc_mag_max", "acc_mag_range", "acc_mag_energy", "acc_mag_mad", "acc_jerk_mean_abs", "acc_jerk_max_abs", "ax_std", "ay_std", "az_std", "ax_mean", "ay_mean", "az_mean", "acc_sma", "gyro_mag_mean", "gyro_mag_std", "gyro_mag_max", "gyro_mag_energy", "gx_std", "gy_std", "gz_std", "gyro_sma"], "standardize": {"mean": [1.2433653214134095, 0.46580209846394904, 0.52858717614731, 3.6392130957674946, 3.1106259196201815, 2.0838872773376806, 0.26165463682661777, 0.23721131061267503, 2.546715882285798, 0.45578287657513744, 0.4404441061253695, 0.5007833803507795, 0.0061606367644492475, 0.0028201853069520755, 0.013577399071258874, 1.6788623219186989, 0.8999855170319699, 0.5538329546525824, 3.3083145519321118, 3.137686048883127, 0.651953613314601, 0.6425022570959423, 0.6366831782126555, 1.3566338300512337], "std": [0.3706995939265555, 0.4284158855288702, 0.3666117015737122, 3.324946452640731, 3.6326470334396928, 1.3367014748413142, 0.23014021228359824, 0.2478206545716507, 3.49997366335493, 0.4356481357236118, 0.4501059557830634, 0.41595709310424966, 0.5343026792266339, 0.5416529784447796, 0.5356040650190753, 0.6666483357643413, 1.3118783534683065, 0.5476827202476787, 3.295830179686695, 5.035169604937662, 0.806611622922306, 0.7923536325837258, 0.7819526078822213, 1.977568920915648]}, "layers": [{"W": [[-0.23600042468690746, 0.0287784482668633, 0.008256474903500982, 0.10268012830695043, 0.24920786189931157, 0.07276245521707764, -0.18805468918164267, -0.319590769327909, -0.2862925027136055, 0.08610589874369923, 0.029905323367838597, 0.13723010804223473, -0.008349916892338355, -0.35478218652431687, -0.19502032550706483, 0.2050919928445109, -0.1250730577821451, 0.016064452875474602, 0.23950478031652261, -0.3387644682149064, 0.07487099381798513, 0.2490532055505203, -0.2523219975759822, 0.09446246398899673, 0.23577756066405803, -0.16424961562853518, -0.010869339886872921, 0.22720434501584716, 0.18385821936820737, 0.05517179406788596, -0.32357827491615976, -0.1472679414864834], [-0.050580221057609634, 0.08264981187584348, -0.17610750469188638, 0.14760604755448442, 0.25007754422385753, -0.04077060891250251, 0.16658782742054898, -0.21552645638297707, 0.06220901688838768, -0.025136315454284543, 0.19395692545647852, -0.14627106205311025, 0.039067308278846, 0.0645637824370333, -0.1166126941367219, 0.21887158321206227, -0.14839568619268362, 0.10587723512248684, -0.12242714861726164, -0.06930998064565466, -0.01407633940948879, 0.048238050094097575, -0.05545026477261487, -0.28551954274882524, -0.38060986720774237, 0.23328382944882656, -0.0978450324081719, 0.19295954099669174, 0.23208442662343004, 0.1101525858983412, -0.1712739905183287, -0.02037578002515266], [0.03734995810959349, -0.30555256515305784, 0.4882098346856247, 0.4015700077330065, 0.11405521489743786, -0.21100723585834344, 0.029756497326639944, -0.14950720856126168, -0.2537712042087167, -0.13004122094548365, 1.8259320083932493e-05, 0.04999516620673319, -0.3153043950858664, -0.0008915066029555174, -0.06093918842233609, -0.1406243204976053, -0.2884046467060534, -0.022554677127127352, 0.06593025812812003, 0.16800769922619904, 0.38415893471613305, -0.10297505927903387, -0.1755352555664839, 0.11749807740554996, 0.4230060810691467, 0.0016148491255958421, 0.37972400809350454, 0.20928883656459907, -0.21938246308986675, 0.3569984564722821, -0.29635477556557155, -0.16238392287738826], [0.23418459693210467, 0.24285575921292787, -0.23406871186204714, 0.0629184743715187, -0.1495822138302412, -0.232487503731327, 0.32760183078645677, -0.10271881354197666, 0.14348766264246293, 0.07590621419700258, 0.3395705533259738, 0.09557387319259501, -0.273601161132267, -0.10372689952865559, -0.12173636211609015, -0.40990783080148996, 0.09646169701429391, -0.0036468352608748818, 0.1593873417057098, 0.22372361211438607, -0.1484391595497675, -0.2346477834901895, -0.04025165444870868, -0.2904852264310313, -0.1765339982549538, 0.1449600341688421, -0.17502752864712767, 0.2349459763675181, 0.16609109994780047, -0.32830571999084407, 0.14482373112882715, 0.2723537533062532], [0.3492233726959088, -0.04301447628675304, -0.2513643554146676, 0.19646374664853294, 0.403006713629079, -0.31299239425120745, 0.09096162554679171, 0.08372919776750751, 0.3098759384527999, -0.26338584951198085, 0.24090277352253167, 0.1283120565297932, 0.08720094490285768, -0.27699246468798383, -0.3974416538299877, -0.2498673456311246, 0.27091592794727176, -0.3689817567407214, -0.38529304878651316, -0.148811770625501, -0.22873320897503566, -0.2655804313435746, -0.4393569579245291, -0.014369396775462133, 0.09411766577387369, 0.050279406448449596, -0.25039971717825893, -0.056370623971707404, -0.009838122692331258, 0.2537047400730727, 0.4485179738076295, -0.08263751775289727], [-0.27662085053615776, 0.13216655520304807, 0.3506792507169493, -0.05960629591678975, 0.13172954655915245, 0.19100968079131944, 0.027634475478485413, 0.20463148981676815, -0.3993129208851717, -0.11263226204898864, -0.21212969664167527, -0.31618478712232356, 0.33561327006286, -0.3567959216447108, 0.03498226008912, -0.3693549517682611, -0.02810123520275554, -0.06777612243877917, -0.24833822672039213, -0.05635044110872894, 0.10969489557313823, -0.17536103802261294, 0.03095324803408478, -0.17488186241453738, -0.184220483118224, -0.01748507642953382, -0.05735653228468679, -0.13795795730445243, 0.24907896077870018, 0.2911428249331011, -0.36812397739540176, -0.18402136560251917], [-0.15174875303806026, 0.0038445017039480367, -0.2798620400392558, -0.102284195717263, 0.23562750204030217, 0.10127723498116126, 0.13065819656249913, -0.027470971903921275, 0.2956796467712935, -0.15856386936289227, 0.1168847953256781, 0.252021433958748, 0.1378449347110855, -0.27360806149837164, 0.13087594400105865, 0.18445433289312002, 0.14741273649739337, -0.10469579377831251, 0.23232042164182687, 0.40375186801774265, -0.2387522078737028, 0.15674112082834285, -0.10238672996038631, 0.39806464619567533, 0.04097768658448852, 0.17839699738473366, 0.009724062077464308, -0.12476189998065688, -0.172498333228678, -0.1452270373844592, -0.06272608934150001, -0.10294562950561811], [0.2956496517068641, -0.05295867350804978, -0.026549239729659477, -0.3178445822747047, 0.0688089256306015, 0.28688366232826956, -0.0072844736415990955, -0.23227892336731837, 0.12144469793984901, -0.1496394339648138, 0.1506806265835558, -0.01077701735112674, -0.06669538088736994, -0.0716251109172888, 0.026055193823605573, -0.21364872300530655, 0.29284920978446133, -0.002354264924532174, 0.2030944969555678, 0.19996323044498865, -0.31822184077823135, 0.07493320266072528, -0.16924899045550976, 0.22914617579474644, -0.052165968786068065, 0.06006765932203795, 0.1927462671556787, -0.22341310103306075, 0.010225692748216674, -0.045749796007149325, -0.416900983468756, 0.1524944067031284], [0.08180724786073183, 0.36287193586340083, 0.07893236148293675, -0.13974783192185633, 0.44640905111328466, -0.40515166643534295, -0.1631707967086096, 0.09850850242603887, -0.006517191303259464, -0.20254833413130352, 0.3961507229194003, -0.19172577040212635, 0.27967787841439584, 0.04763257365636531, -0.21824486234015772, -0.42291513063227915, -0.09504470713780327, 0.22945974697037225, -0.11417801671183332, -0.29511852223035406, -0.008797471849537188, 0.18193354761614283, -0.3811904796992544, 0.08550733947786311, -0.1982947661529447, 0.3999240737071616, 0.11727511604500279, -0.25286079849382037, 0.21308649275954583, -0.12581072469723117, 0.2772262206559898, 0.091540906377623], [-0.23472859804263754, -0.16568879963938948, -0.2914039917336845, -0.2927666931073285, -0.3141829779625561, -0.20554941308786276, 0.39080907860406056, -0.34030228516165, 0.09136331364895084, -0.16701256047302146, -0.16390095575623903, 0.10707595161141119, 0.35510127855113044, -0.1031530078487591, -0.3869877794869596, 0.2730988557223545, -0.2271266705061654, -0.08012615810504843, -0.04006601926787406, 0.2230519252826057, 0.12434572903410687, 0.059814721301347185, -0.09630506260473029, 0.2743755040951198, 0.1307264403313321, 0.335248199002776, 0.04131202527405925, -0.1948620828294612, -0.19310758701945777, 0.026951480153389388, 0.11719556396535039, 0.3261029168510447], [-0.1270818338733823, 0.2044205867078788, -0.013291266393549054, 0.14633077083324653, -0.21991586304416394, -0.11979791495244252, -0.1505415039186148, -0.24106228218807557, 0.3405355519358071, -0.15387614464356716, 0.264768314496167, -0.06365772982177642, -0.22937803919790437, 0.1414291040543569, -0.39080657331009105, 0.106635310594141, -0.24612667734277038, -0.003159791668122574, -0.26331816341309017, -0.18584410101163848, 0.4026108357121926, -0.07482739705319884, -0.04664534054565612, 0.19372769428102907, -0.2302926313264495, 0.3200596601334991, 0.3116528711793233, -0.1716366672566116, -0.03554472093384006, -0.06557368844059047, 0.3017319073476728, -0.26528430407640574], [0.0031529860800712877, 0.27245538875804937, -0.08934076524814037, -0.39648625632719897, 0.2009868630225476, 0.06556523890085313, 0.3088484474672628, -0.10687257309977312, -0.08235161660015354, 0.3202849610174335, 0.2087577955963098, 0.10162133849844598, 0.37146070780910495, -0.32698547448544796, -0.10673314971990476, -0.10634568140947885, 0.0732736521330465, 0.17311665576276689, -0.1933857540482794, 0.08877549554431458, -0.39273362041244386, -0.18786037146990195, 0.24172692032645704, -0.046500235074284205, -0.24710944193691747, 0.37217393847846925, -0.4335795919593648, 0.18865246711431846, 0.03572506063150376, -0.22973952619128032, -0.04811846973768689, 0.4939128423400651], [-0.09005760008844872, 0.18897355936986127, 0.15104261323903553, -0.05366321973303362, 0.32126050438722303, 0.06347152608180062, 0.1026193238172224, 0.11970309003849199, -0.004916529146615203, 0.0912420192117057, -0.08907156438887859, 0.3431780412436037, -0.01239139358940969, -0.1256545145009524, -0.03234960264809263, 0.26437986826097204, 0.10673334916698045, -0.02677438574782509, -0.07850822433508928, -0.07671718852298394, 0.2980206925824203, -0.3754984681515812, 0.2566585712722365, 0.1960287431883322, -0.21117678414150998, -0.16933271818890036, 0.03591810483819637, 0.21913841385632926, 0.2504478632187297, 0.21597676166707758, -0.06951854728468236, -0.13638717695193509], [-0.0006543011147340427, 0.09748072421606654, 0.13862639225046147, -0.1774990892832621, 0.10289524406411214, 0.1808935130919122, 0.42082959580182694, 0.2760627945263433, 0.3248462527737736, 0.32284693689471505, -0.2533822106132867, 0.31367957170985306, -0.12618187781396215, -0.08585258499667098, -0.10577129779048448, 0.23513290084862654, 0.06330225487454673, -0.14591243314187038, -0.03791178952534199, 0.35795206102710525, 0.2936550712139201, -0.39304454636037806, -0.24306484199852482, -0.2324079769014404, -0.11507675816242524, 0.09452704951508252, -0.09369812884831845, 0.032939406983912234, 0.24146076774023306, 0.1436459972350805, -0.10513022324328215, -0.23814476236655602], [-0.07578635826078675, 0.048521268753410174, -0.009950745266638451, -0.2068537941418464, -0.1890746036206469, -0.1393999556267812, 0.32940556643931934, 0.07167869761356596, 0.0033649124172055833, 0.18357641525479695, 0.014700876840251459, 0.002380706562738118, -0.06607818388434969, -0.03745885073301317, 0.267781716629363, 0.19208936903800183, 0.2224404439171049, -0.24863068389593257, -0.057780484747528, -0.0884344095447137, -0.2558496684022988, -0.0733783402225559, -0.2470280162812562, -0.1446527916965782, 0.13548507349163297, 0.14430446826534846, 0.07710975638616525, -0.2760175718978327, -0.19477000564328842, -0.25309017948311957, -0.3106672734021128, -0.18562845771260691], [0.33039533936889215, 0.10694864240854299, -0.23502398528415225, -0.23909985699337027, 0.236567718224583, 0.18758368219076563, -0.26439816170582947, -0.09995205415180644, -0.25716113647097444, 0.18020247791114924, 0.05987025161664258, -0.03903483360955366, 0.2800852999903809, -0.3775102003986415, 0.05414275581749714, 0.3063237225525313, -0.1699864307280936, 0.07984009343713303, 0.02790019606001241, -0.01357841036485924, 0.13579262224570438, -0.024123873166446562, 0.06422600867296999, 0.33717442605057296, -0.4525693203800271, 0.3189485918897155, -0.3567800560719173, -0.0007764414555080374, 0.06589016854926553, 0.044561595748521705, -0.43927816101743133, -0.19280235829220763], [-0.053210189404240466, 0.15983193906976112, 0.31685561035059456, 0.008032277501928656, 0.21959151187621206, 0.29506159532162374, -0.262382059114374, -0.3007681505670678, -0.05130122214865281, -0.03648923630067619, -0.4102434739488081, 0.25033820802787554, 0.3777767472337852, -0.048238565718620126, 0.016884246636612945, 0.04861426899563544, 0.34459379121206746, 0.026398558908499684, 0.008549760026123692, -0.18837447220952386, -0.17520958300885178, -0.02243848321334428, -0.24989879978839666, -0.2435137660010681, -0.13272045533018131, 0.24436626984965756, -0.18268818018424593, 0.3026976385989926, 0.20318646064101253, 0.1742207718563039, 0.1367767505185284, -0.40715414637685016], [-0.16538424214691516, 0.382669320606824, 0.3285389926193647, -0.3076062246958714, 0.18071136254907647, -0.45918721060899104, -0.0807110522208361, -0.3120362546417069, -0.051041010263885356, -0.1587933607481674, 0.3648381992360877, -0.12515703138306497, -0.17556622062892566, -0.1974517391130235, -0.42927463285868, -0.4242060115777342, 0.03333580629607367, -0.10610164772807903, -0.211307799497912, -0.16560104641190238, -0.14563506518618746, 0.03338873418733849, -0.2287331041077204, -0.19468113393753106, 0.02508614208423012, -0.08853265738401588, -0.08221585687217509, -0.19112180313150465, 0.10893153969606306, -0.07321567352994704, 0.4593418082030244, 0.00941422470939681], [-0.18106307092186485, 0.2555372036732145, 0.20032271806380755, 0.21743456312239093, -0.19221757799513156, 0.03326703361932598, 0.40754401142102126, -0.18743013912554404, 0.0627073500529335, -0.030806453957360418, -0.030720476549712813, 0.15725992593478072, 0.2007241429933647, 0.1849323935029427, -0.14500047723831289, -0.11029726370689626, -0.11905598113933251, -0.22013400879454337, 0.09848700478222476, 0.2144893287338294, -0.10982506336464232, -0.36898615118715855, -0.44715476005423216, -0.031922695994984325, 0.21861548634715888, -0.07487289526656697, 0.04992392479950852, 0.0644248879966394, 0.1429583332080902, -0.15801867903497083, -0.16136496043754503, 0.08911896609253034], [-0.04463867680598147, -0.27250831134521836, 0.2800632014343007, 0.10654563660077362, -0.3330970286207477, -0.053070653681458455, 0.008890445904051955, 0.25419309972631066, -0.47045363192635764, 0.2027480654391354, -0.38650845753011825, 0.04266162734406664, 0.13191116613197995, 0.26604839885592646, -0.007755188318744132, -0.38575935431266734, 0.17911260646316954, -0.15449474221579917, 0.18604322482802493, -0.4359996133727157, 0.028299513136527975, 0.045776573855383064, -0.38276587669114714, 0.14457134976953123, 0.2071822104099235, 0.22884746580971124, 0.31230173090454433, -0.005308398377483344, -0.17157959508318887, -0.07385327175529083, -0.17613447745065544, -0.4643666755284368], [0.17836224073807044, -0.25431286378633544, -0.23638998100367478, 0.24066234291116573, 0.14671433725617092, -0.15227196273320806, -0.20798318354130857, 0.1577622658240656, -0.05305339469074489, -0.11281994761871916, -0.09025828762735986, 0.15841568560760477, -0.2540464359016227, 0.2616594805771844, -0.03898019788496616, -0.2901580367958008, 0.26951510322021605, -0.25557661456245595, -0.10606811712781192, -0.0233813824883284, -0.11745267282118416, 0.20281251166193606, 0.015369195007325743, -0.16252171122816883, -0.24854354025365646, -0.19255803441358352, 0.03409110808487461, -0.1425342881021547, -0.011141379193896161, 0.2855979217548364, 0.18844249326597587, -0.3704294566562094], [-0.0675991660265575, -0.04513532031997046, -0.03207767028059593, -0.09489177658388234, -0.07607257344963135, 0.15661914734916196, -0.24601518204738151, -0.15650099052232375, -0.1988074910597868, -0.19301193806682782, 0.03291467614099297, -0.1363907636875718, 0.3395643371907017, 0.15112222037517864, -0.25761003407783784, -0.2501802271841248, 0.2528209994910217, 0.05131666808930971, -0.36698054639287914, 0.01681477767574915, -0.019218680838349277, 0.13934823093105572, 0.04635874611942853, 0.3267298893114777, 0.10837907889144015, 0.35051987567272014, -0.15017283890942212, -0.04570853231273858, -0.31801889738448436, 0.30826426674226015, -0.2809424376946985, -0.08147561710952766], [0.047968213110746546, 0.22857459226584195, -0.02729501735793245, -0.2760509657699652, -0.12848549097148831, -0.2975120545896885, -0.23376873225545705, 0.02987235457430231, -0.41457866482421946, 0.35606931480060505, -0.027223661035780933, -0.20295998115102365, 0.28869653919035065, -0.2984955674868804, -0.19533289714960506, 0.20538046513326055, -0.1002470444900484, 0.1632448695395191, -0.32075729573441164, -0.046167831266195426, 0.14783301522858178, -0.23553888713277318, -0.22263219084919936, 0.08727458945671517, 0.03510970951109807, -0.13407868955805824, -0.07075464599673868, 0.38969477143928916, -0.1524602288511488, 0.2588963658864434, -0.24358160271373494, -0.1280519634236232], [0.052135385846038336, -0.07653684451633294, 0.18406748382610544, 0.14558328571299162, 0.0669341842619907, 0.2610480486474347, 0.07178308909272767, -0.16485267847211071, 0.09347019821698056, 0.09389997023775869, -0.2470035636452404, -0.2781856946153357, 0.2435661921748735, 0.015696858180608207, -0.34029712670370393, -0.0033105038427158687, -0.23304749382531995, -0.022489193018066584, 0.00053077444201148, 0.09352227145646885, -0.23621829538140499, -0.33366516239069327, -0.019207220601594896, 0.27287344538275926, 0.1441696511363873, -0.011515398239264963, 0.01087618336784886, 0.20876392164644428, 0.3154652436493571, 0.06767554783823812, 0.1252916555614488, -0.24605273581650527]], "b": [-0.23490543026248856, -0.006196660189854932, 0.11819724077604278, 0.23208581648161486, -0.02955404899894964, 0.2864869786108346, -0.029297829006164212, -0.003030920684165289, 0.09257435406192695, -0.007380665719734121, -0.0875785713279185, 0.05120028739364886, 0.1875127650820631, 0.07687332608167924, 0.2505383909445601, 0.13097082206614177, 0.2110940573978673, 0.03107921736234511, 0.27094155563902356, -0.014106968577017466, -0.016946774605414952, -0.11067181378560105, -0.11591295141272806, 0.46715132780112717, -0.18214036095404096, -0.18948035838876218, -0.09527525179315251, 0.25673710214351003, 0.09735124797860002, 0.37280239685625943, 0.406271947047466, 0.13196648436897548]}, {"W": [[-0.19726374257791315, -0.33369686690621225, -0.14463963817140757, 0.07417265348970009], [0.2523996010545606, -0.5139156386153382, 0.38583796850989693, 0.2551773247653485], [0.34860185839296426, -0.49293176324299876, -0.46906504095254503, 0.17955460425212277], [0.2941456166503784, -0.25039256812194727, -0.15550126907283737, -0.47057863562225133], [0.34694124795041126, 0.21867847612077382, 0.43857814065853046, 0.3105884674680197], [-0.07750902958287124, 0.425732178325644, -0.35932004187062466, 0.13868272312533278], [-0.3693085262800334, -0.11647860090154626, 0.5069038664912981, -0.03026600383489631], [0.3960427406019149, 0.14307611394049394, -0.15235506562332055, -0.2755039155190192], [-0.5778339072900652, 0.051354816797821334, 0.41279371253530794, -0.34542853410882884], [-0.026989055160296538, 0.49351404863390497, -0.12497156642895188, 0.3199990268801203], [0.17912518295038912, -0.12182235230548713, 0.21933185676230638, -0.495876580168489], [-0.06626549426923843, 0.22999561392381992, -0.1518150815345416, -0.3352711396656921], [-0.45986050641827886, -0.3641803253821015, -0.16768279402207684, 0.32945156061580055], [0.12677711123501365, -0.1354784518480697, -0.0539222595313934, -0.3003907848617662], [0.07744489984773825, 0.29782646509397354, -0.3565135210875174, -0.12226438674394921], [-0.0308998061994791, 0.5536409941458664, -0.2968951636248263, -0.2174233729091316], [-0.04525329877219115, -0.2294126399347522, 0.21902803901711806, 0.3673749787167115], [-0.1806415284232631, 0.10467290857343538, -0.2939551794169997, -0.03774578175346752], [0.3851438131118052, 0.16484900395695337, -0.3371608604321509, -0.27018796442230697], [-0.02358539126766124, 0.41127252611669235, 0.009353069131374405, -0.11743260151017738], [0.37071349234880197, -0.3565814787784804, 0.2883378660689989, -0.08010052906278498], [-0.0854209244154393, 0.27608679186197527, -0.3001099451677417, -0.38535312953273115], [-0.1793597502573486, 0.26944350550251, -0.43145744812961706, -0.11061786914299215], [-0.3810856318393668, 0.21171654480495034, -0.41536325944515784, 0.3459914119415858], [0.5151722256291729, -0.19952393391359252, -0.22362877335813033, -0.022811567598295814], [0.1045332043435817, -0.4749089840835949, 0.21914681185156126, 0.3943283855121757], [0.43042086556968756, -0.15462491613885856, 0.16592159931694253, -0.04689924454302639], [-0.23398569955999307, -0.10773510515687454, 0.00913466045429341, 0.006379970264385031], [0.18276881843323411, 0.10360279565370255, -0.1616624359611259, -0.10417976905422363], [0.2545443812131161, -0.034151949836284085, -0.3417630422686725, 0.384964233487738], [-0.1812476170555962, -0.2889436278009211, 0.14443088350010494, -0.26753311846616945], [-0.36452425507818154, 0.29416122790353055, 0.398506478345509, -0.15997740961474907]], "b": [-0.42280725053682355, 0.0807934943376844, 0.02112429627245097, -0.12488971171540279]}], "activations": ["relu", "softmax"], "metrics": {"testAccuracy": 0.9992, "trainedAt": "2026-07-17T04:21:27.627193+00:00", "nWindows": 6000}}